<?xml version="1.0"?>
<opencv_storage>
<cascade>
  <stageType>BOOST</stageType>
  <featureType>LBP</featureType>
  <height>24</height>
  <width>24</width>
  <stageParams>
    <boostType>GAB</boostType>
    <minHitRate>9.9500000476837158e-01</minHitRate>
    <maxFalseAlarm>5.0000000000000000e-01</maxFalseAlarm>
    <weightTrimRate>9.4999999999999996e-01</weightTrimRate>
    <maxDepth>1</maxDepth>
    <maxWeakCount>100</maxWeakCount></stageParams>
  <featureParams>
    <maxCatCount>256</maxCatCount>
    <featSize>1</featSize></featureParams>
  <stageNum>6</stageNum>
  <stages>
    <!-- stage 0 -->
    <_>
      <maxWeakCount>3</maxWeakCount>
      <stageThreshold>-1.2588651180267334e+00</stageThreshold>
      <weakClassifiers>
        <_>
          <internalNodes>
            0 -1 5 -67109889 -800599933 -1610506233 -804027829
            -1047576445 1073991699 -750038645 -1</internalNodes>
          <leafValues>
            -9.7407776117324829e-01 6.1538463830947876e-01</leafValues></_>
        <_>
          <internalNodes>
            0 -1 1 -1052673 -481635029 -2147294974 -936457517 -173862425
            1619247271 -1047529133 -2065</internalNodes>
          <leafValues>
            -9.4973671436309814e-01 7.2424471378326416e-01</leafValues></_>
        <_>
          <internalNodes>
            0 -1 15 -268435505 -322438221 -1056741369 -425999661
            -209196505 -250928757 -337690057 -469763073</internalNodes>
          <leafValues>
            -9.6711957454681396e-01 6.6494929790496826e-01</leafValues></_></weakClassifiers></_>
    <!-- stage 1 -->
    <_>
      <maxWeakCount>3</maxWeakCount>
      <stageThreshold>-1.5340710878372192e+00</stageThreshold>
      <weakClassifiers>
        <_>
          <internalNodes>
            0 -1 5 -102760449 -707531385 -1064730225 -340791145
            -796169537 -1403271753 -980984885 -17</internalNodes>
          <leafValues>
            -9.7108674049377441e-01 5.5769228935241699e-01</leafValues></_>
        <_>
          <internalNodes>
            0 -1 7 -710934529 -60457 -1151621633 -134538849 -1186251137
            -4521793 -224460833 -8913937</internalNodes>
          <leafValues>
            -9.4790327548980713e-01 3.7822750210762024e-01</leafValues></_>
        <_>
          <internalNodes>
            0 -1 12 -1412448337 -1619012945 -1023325281 -170940001
            853515679 2074985871 2127559407 -268439553</internalNodes>
          <leafValues>
            -9.4121187925338745e-01 5.5683583021163940e-01</leafValues></_></weakClassifiers></_>
    <!-- stage 2 -->
    <_>
      <maxWeakCount>3</maxWeakCount>
      <stageThreshold>-1.3759913444519043e+00</stageThreshold>
      <weakClassifiers>
        <_>
          <internalNodes>
            0 -1 9 -545391105 -44452873 1603336157 -2284219 1001330943
            -1250389 -273940993 -1070609</internalNodes>
          <leafValues>
            -9.5447796583175659e-01 4.3820226192474365e-01</leafValues></_>
        <_>
          <internalNodes>
            0 -1 6 -262145 521928607 -987968514 -8142101 -36732933
            1556059167 -257176833 -4199425</internalNodes>
          <leafValues>
            -9.1920191049575806e-01 4.8558083176612854e-01</leafValues></_>
        <_>
          <internalNodes>
            0 -1 10 -3670049 1031495103 -104211755 530042903 -21238529
            -106261331 -1662408519 -1665406545</internalNodes>
          <leafValues>
            -8.9499163627624512e-01 6.7375540733337402e-01</leafValues></_></weakClassifiers></_>
    <!-- stage 3 -->
    <_>
      <maxWeakCount>3</maxWeakCount>
      <stageThreshold>-1.6503798961639404e+00</stageThreshold>
      <weakClassifiers>
        <_>
          <internalNodes>
            0 -1 4 -1 -525489 -191371505 -1052817 -622857873 -100952013
            -68162737 -1</internalNodes>
          <leafValues>
            -9.5983934402465820e-01 1.8644067645072937e-01</leafValues></_>
        <_>
          <internalNodes>
            0 -1 14 -67110913 1029701087 -1046372517 -1614826913
            -2115239973 1306258051 -643858435 -9</internalNodes>
          <leafValues>
            -9.1413897275924683e-01 4.2652377486228943e-01</leafValues></_>
        <_>
          <internalNodes>
            0 -1 2 -302534873 -158075945 -307508241 -8414273 1406918015
            -9437789 -33554449 -1057</internalNodes>
          <leafValues>
            -9.2268157005310059e-01 5.2236706018447876e-01</leafValues></_></weakClassifiers></_>
    <!-- stage 4 -->
    <_>
      <maxWeakCount>3</maxWeakCount>
      <stageThreshold>-1.9502680301666260e+00</stageThreshold>
      <weakClassifiers>
        <_>
          <internalNodes>
            0 -1 11 -1073743937 -2107425 -112526849 -3105 -107743237
            -1339221 -1311745 -2097171</internalNodes>
          <leafValues>
            -9.5979380607604980e-01 -1.6470588743686676e-01</leafValues></_>
        <_>
          <internalNodes>
            0 -1 0 -1057 -355476385 -158082354 -287377697 -69469209
            -236986465 -70387730 -134218753</internalNodes>
          <leafValues>
            -9.0036910772323608e-01 3.1704181432723999e-01</leafValues></_>
        <_>
          <internalNodes>
            0 -1 8 -8389761 -19139089 -544669761 -67177505 -18915457
            -68475950 -68431105 -134217857</internalNodes>
          <leafValues>
            -8.8519304990768433e-01 5.2322256565093994e-01</leafValues></_></weakClassifiers></_>
    <!-- stage 5 -->
    <_>
      <maxWeakCount>3</maxWeakCount>
      <stageThreshold>-1.6240038871765137e+00</stageThreshold>
      <weakClassifiers>
        <_>
          <internalNodes>
            0 -1 3 -1073758209 -1211630233 -844684449 -4196457
            -605290513 -91034693 -268706881 -1053761</internalNodes>
          <leafValues>
            -9.6714359521865845e-01 -2.9147982597351074e-01</leafValues></_>
        <_>
          <internalNodes>
            0 -1 13 -268435457 -1355287073 -885868591 -9729 -336924673
            -809643041 -7619657 -134222849</internalNodes>
          <leafValues>
            -8.9928311109542847e-01 2.6462021470069885e-01</leafValues></_>
        <_>
          <internalNodes>
            0 -1 16 -536893506 -1387268153 -980710978 -1359485313
            -336628930 2070408347 -16302330 -547378385</internalNodes>
          <leafValues>
            -9.2148047685623169e-01 3.9828547835350037e-01</leafValues></_></weakClassifiers></_></stages>
  <features>
    <_>
      <rect>
        0 0 1 2</rect></_>
    <_>
      <rect>
        0 2 1 5</rect></_>
    <_>
      <rect>
        0 10 2 3</rect></_>
    <_>
      <rect>
        0 11 1 4</rect></_>
    <_>
      <rect>
        2 0 1 5</rect></_>
    <_>
      <rect>
        3 0 1 7</rect></_>
    <_>
      <rect>
        3 2 2 7</rect></_>
    <_>
      <rect>
        3 18 3 2</rect></_>
    <_>
      <rect>
        4 17 1 1</rect></_>
    <_>
      <rect>
        4 21 4 1</rect></_>
    <_>
      <rect>
        9 15 5 3</rect></_>
    <_>
      <rect>
        13 21 1 1</rect></_>
    <_>
      <rect>
        18 12 2 4</rect></_>
    <_>
      <rect>
        18 14 1 1</rect></_>
    <_>
      <rect>
        19 4 1 6</rect></_>
    <_>
      <rect>
        20 0 1 3</rect></_>
    <_>
      <rect>
        21 0 1 6</rect></_></features></cascade>
</opencv_storage>